<?xml version="1.0"?>
<opencv_storage>
<cascade>
  <stageType>BOOST</stageType>
  <featureType>HAAR</featureType>
  <height>18</height>
  <width>18</width>
  <stageParams>
    <boostType>GAB</boostType>
    <minHitRate>9.9500000476837158e-01</minHitRate>
    <maxFalseAlarm>5.0000000000000000e-01</maxFalseAlarm>
    <weightTrimRate>9.4999999999999996e-01</weightTrimRate>
    <maxDepth>1</maxDepth>
    <maxWeakCount>100</maxWeakCount></stageParams>
  <featureParams>
    <maxCatCount>0</maxCatCount>
    <featSize>1</featSize>
    <mode>BASIC</mode></featureParams>
  <stageNum>6</stageNum>
  <stages>
    <!-- stage 0 -->
    <_>
      <maxWeakCount>2</maxWeakCount>
      <stageThreshold>-9.5726527273654938e-02</stageThreshold>
      <weakClassifiers>
        <_>
          <internalNodes>
            0 -1 0 4.4889986515045166e-01</internalNodes>
          <leafValues>
            -9.5514512062072754e-01 9.2813640832901001e-01</leafValues></_>
        <_>
          <internalNodes>
            0 -1 10 1.2456675991415977e-02</internalNodes>
          <leafValues>
            -9.8771959543228149e-01 8.5941857099533081e-01</leafValues></_></weakClassifiers></_>
    <!-- stage 1 -->
    <_>
      <maxWeakCount>2</maxWeakCount>
      <stageThreshold>-9.2076316475868225e-02</stageThreshold>
      <weakClassifiers>
        <_>
          <internalNodes>
            0 -1 5 3.5835477709770203e-01</internalNodes>
          <leafValues>
            -8.9364463090896606e-01 9.1405773162841797e-01</leafValues></_>
        <_>
          <internalNodes>
            0 -1 9 -2.1450005471706390e-02</internalNodes>
          <leafValues>
            8.0156832933425903e-01 -8.9558643102645874e-01</leafValues></_></weakClassifiers></_>
    <!-- stage 2 -->
    <_>
      <maxWeakCount>2</maxWeakCount>
      <stageThreshold>-4.4045124202966690e-02</stageThreshold>
      <weakClassifiers>
        <_>
          <internalNodes>
            0 -1 11 -3.2353304326534271e-02</internalNodes>
          <leafValues>
            8.4332346916198730e-01 -8.6853146553039551e-01</leafValues></_>
        <_>
          <internalNodes>
            0 -1 2 6.6086761653423309e-03</internalNodes>
          <leafValues>
            -8.3276242017745972e-01 8.2448631525039673e-01</leafValues></_></weakClassifiers></_>
    <!-- stage 3 -->
    <_>
      <maxWeakCount>4</maxWeakCount>
      <stageThreshold>-6.7991214990615845e-01</stageThreshold>
      <weakClassifiers>
        <_>
          <internalNodes>
            0 -1 0 5.4369997978210449e-01</internalNodes>
          <leafValues>
            -8.2328188419342041e-01 8.2216954231262207e-01</leafValues></_>
        <_>
          <internalNodes>
            0 -1 6 8.3254808560013771e-03</internalNodes>
          <leafValues>
            6.0159641504287720e-01 -9.9585425853729248e-01</leafValues></_>
        <_>
          <internalNodes>
            0 -1 1 2.6741394773125648e-02</internalNodes>
          <leafValues>
            -8.6270749568939209e-01 4.6773833036422729e-01</leafValues></_>
        <_>
          <internalNodes>
            0 -1 6 2.3774275177856907e-05</internalNodes>
          <leafValues>
            -9.5819818973541260e-01 4.0448084473609924e-01</leafValues></_></weakClassifiers></_>
    <!-- stage 4 -->
    <_>
      <maxWeakCount>2</maxWeakCount>
      <stageThreshold>-3.0535811185836792e-01</stageThreshold>
      <weakClassifiers>
        <_>
          <internalNodes>
            0 -1 3 1.4604030176997185e-02</internalNodes>
          <leafValues>
            -9.3162393569946289e-01 7.4104684591293335e-01</leafValues></_>
        <_>
          <internalNodes>
            0 -1 8 2.1112693473696709e-02</internalNodes>
          <leafValues>
            -8.5650473833084106e-01 6.2626582384109497e-01</leafValues></_></weakClassifiers></_>
    <!-- stage 5 -->
    <_>
      <maxWeakCount>4</maxWeakCount>
      <stageThreshold>-5.3252637386322021e-01</stageThreshold>
      <weakClassifiers>
        <_>
          <internalNodes>
            0 -1 12 -2.1348872687667608e-03</internalNodes>
          <leafValues>
            7.3634856939315796e-01 -9.1141396760940552e-01</leafValues></_>
        <_>
          <internalNodes>
            0 -1 7 4.9610193818807602e-03</internalNodes>
          <leafValues>
            5.1997709274291992e-01 -9.6389603614807129e-01</leafValues></_>
        <_>
          <internalNodes>
            0 -1 0 6.2043309211730957e-01</internalNodes>
          <leafValues>
            -7.1657383441925049e-01 6.9187766313552856e-01</leafValues></_>
        <_>
          <internalNodes>
            0 -1 4 5.1093113422393799e-01</internalNodes>
          <leafValues>
            -6.3725191354751587e-01 5.7548433542251587e-01</leafValues></_></weakClassifiers></_></stages>
  <features>
    <_>
      <rects>
        <_>
          0 3 18 13 -1.</_>
        <_>
          6 3 6 13 3.</_></rects>
      <tilted>0</tilted></_>
    <_>
      <rects>
        <_>
          1 7 4 5 -1.</_>
        <_>
          3 7 2 5 2.</_></rects>
      <tilted>0</tilted></_>
    <_>
      <rects>
        <_>
          1 8 2 3 -1.</_>
        <_>
          2 8 1 3 2.</_></rects>
      <tilted>0</tilted></_>
    <_>
      <rects>
        <_>
          1 8 6 4 -1.</_>
        <_>
          3 8 2 4 3.</_></rects>
      <tilted>0</tilted></_>
    <_>
      <rects>
        <_>
          2 0 14 18 -1.</_>
        <_>
          2 6 14 6 3.</_></rects>
      <tilted>0</tilted></_>
    <_>
      <rects>
        <_>
          3 0 12 18 -1.</_>
        <_>
          3 6 12 6 3.</_></rects>
      <tilted>0</tilted></_>
    <_>
      <rects>
        <_>
          4 7 9 5 -1.</_>
        <_>
          7 7 3 5 3.</_></rects>
      <tilted>0</tilted></_>
    <_>
      <rects>
        <_>
          4 9 9 4 -1.</_>
        <_>
          7 9 3 4 3.</_></rects>
      <tilted>0</tilted></_>
    <_>
      <rects>
        <_>
          7 1 4 6 -1.</_>
        <_>
          7 3 4 2 3.</_></rects>
      <tilted>0</tilted></_>
    <_>
      <rects>
        <_>
          7 14 4 4 -1.</_>
        <_>
          7 16 4 2 2.</_></rects>
      <tilted>0</tilted></_>
    <_>
      <rects>
        <_>
          8 1 3 4 -1.</_>
        <_>
          8 3 3 2 2.</_></rects>
      <tilted>0</tilted></_>
    <_>
      <rects>
        <_>
          13 7 4 6 -1.</_>
        <_>
          15 7 2 6 2.</_></rects>
      <tilted>0</tilted></_>
    <_>
      <rects>
        <_>
          15 8 2 2 -1.</_>
        <_>
          16 8 1 2 2.</_></rects>
      <tilted>0</tilted></_></features></cascade>
</opencv_storage>
